{"layers": [{"input_size": 5, "output_size": 16, "activation": "relu"}, {"input_size": 16, "output_size": 8, "activation": "relu"}, {"input_size": 8, "output_size": 1, "activation": "none"}], "weights": [{"weights": [[0.6029512882232666, 0.031676217913627625, -0.28827452659606934, 0.07704699039459229, 0.35487669706344604], [-0.25490331649780273, -0.07385898381471634, -0.38625991344451904, 0.1896040439605713, -0.26583734154701233], [0.043075963854789734, -0.1343294382095337, 0.052293431013822556, -0.13271288573741913, -0.06188845634460449], [-0.22503027319908142, 0.4636962115764618, -0.15295664966106415, 0.048865873366594315, -0.11076128482818604], [-0.15199784934520721, 0.5202046036720276, 0.661530613899231, -0.04306229203939438, -0.42907583713531494], [-0.31058090925216675, 0.004749957472085953, -0.056602105498313904, -0.46261078119277954, 0.4778836965560913], [0.23573948442935944, -0.4512477219104767, 0.6964422464370728, 0.8089414834976196, -0.1711443066596985], [0.2817729115486145, 0.21596477925777435, 0.6300095319747925, 0.11765740811824799, -0.12246030569076538], [0.3301374614238739, -0.3082619607448578, 0.16705423593521118, -0.23722225427627563, 0.2908199727535248], [0.009121072478592396, 0.11336008459329605, 0.010958160273730755, 0.3423982858657837, -0.37805578112602234], [-0.48210933804512024, -0.38271015882492065, -0.12788508832454681, 0.4690209627151489, -0.3494497537612915], [0.3429942727088928, -0.1466042697429657, 0.22512896358966827, 0.4057621955871582, 0.19217142462730408], [0.035694997757673264, 0.043227311223745346, -0.03454195708036423, -0.27853915095329285, -0.20900961756706238], [-0.5717369318008423, 0.12995930016040802, -0.027074534446001053, -0.19205933809280396, 0.0937841609120369], [0.3813930153846741, 0.2995837926864624, -0.709386944770813, 0.01034336443990469, 0.2868046164512634], [-0.24972335994243622, -0.06047873571515083, -0.4628974497318268, 0.21817396581172943, -0.17320039868354797]], "bias": [0.0, 0.0, 0.0, 0.0, 0.0, 0.0, 0.0, 0.0, 0.0, 0.0, 0.0, 0.0, 0.0, 0.0, 0.0, 0.0]}, {"weights": [[-0.03091777116060257, -0.08451185375452042, 0.05571453645825386, 0.3399955630302429, -0.15694601833820343, 0.05061160773038864, 0.08121654391288757, -0.3815704882144928, 0.618015706539154, -0.004854697734117508, 0.5974217057228088, -0.1856810450553894, 0.1805739402770996, 0.14299890398979187, -0.3409976363182068, 0.3799320459365845], [0.09816839545965195, 0.06808224320411682, -0.18932202458381653, -0.26435738801956177, 0.31739258766174316, -0.48220255970954895, 0.4484083652496338, -0.032039571553468704, -0.06496001034975052, 0.020611373707652092, 0.4904383420944214, 0.1152607649564743, -0.8622362017631531, -0.03378310799598694, -0.5076185464859009, 0.028163863345980644], [-0.2410195767879486, 0.6384584903717041, 0.3268161118030548, 0.17506538331508636, -0.33721834421157837, 0.3195341229438782, -0.21515583992004395, -0.30680936574935913, -0.5855112671852112, -0.5843400359153748, -0.09869296848773956, 0.6966565847396851, -0.5613551139831543, -0.2656485140323639, 0.09403633326292038, 0.0014746803790330887], [0.14177078008651733, 0.13888373970985413, 0.2865894138813019, -0.10785886645317078, 0.2838444113731384, 0.018314845860004425, 0.45722082257270813, -0.25501570105552673, -0.13741599023342133, -0.29459360241889954, -0.21160082519054413, -0.13352333009243011, 0.05623674392700195, 0.07515531033277512, 0.11848677694797516, -0.0012075979029759765], [-0.5532953143119812, -0.014710440300405025, -0.56466144323349, -0.0636821985244751, 0.2501639425754547, 0.03921343386173248, -0.09075760096311569, 0.03621087223291397, -0.6424435973167419, -0.00907190702855587, -0.1635381430387497, -0.321654736995697, 0.7029111981391907, 0.061880819499492645, 0.08009446412324905, 0.1486583799123764], [0.24463078379631042, -0.1750391274690628, 0.0014248507795855403, -0.2064206600189209, 0.20665083825588226, 0.43773171305656433, 0.026285771280527115, -0.09311477839946747, -0.2436937838792801, 0.25186052918434143, -0.27751755714416504, 0.2825508117675781, 0.5193236470222473, 0.3222143352031708, 0.11706738919019699, -0.4162883460521698], [0.31674206256866455, -0.3140294551849365, 0.34854021668434143, -0.24391895532608032, -0.15738582611083984, -0.005342433229088783, -0.1954602599143982, -0.06689193844795227, 0.384559690952301, 0.2816513180732727, -0.31902939081192017, 0.01622612774372101, -0.18857741355895996, 0.3655067980289459, -0.10925976186990738, 0.12843388319015503], [0.04434223100543022, 0.484825074672699, -0.7152260541915894, 0.11679806560277939, -0.22293099761009216, -0.44703254103660583, 0.17028599977493286, 0.18473173677921295, -0.032739389687776566, 0.3075438141822815, -0.23154421150684357, -0.007782055996358395, 0.4598768949508667, -0.19104526937007904, -0.3475206792354584, -0.09639047086238861]], "bias": [0.0, 0.0, 0.0, 0.0, 0.0, 0.0, 0.0, 0.0]}, {"weights": [[-0.8974673748016357, 0.17411500215530396, -0.4958048164844513, -0.5629475712776184, -0.06438934803009033, 0.021654533222317696, 0.16859562695026398, 0.43394216895103455]], "bias": [0.0]}]}