{"layers": [{"input_size": 5, "output_size": 16, "activation": "relu"}, {"input_size": 16, "output_size": 8, "activation": "relu"}, {"input_size": 8, "output_size": 1, "activation": "none"}], "weights": [{"weights": [[0.5819993019104004, 0.014375660568475723, -0.3588015139102936, 0.06991209089756012, 0.4390218257904053], [-0.28240084648132324, -0.10135121643543243, -0.41375818848609924, 0.1620958298444748, -0.29334378242492676], [0.007631560321897268, -0.1627061814069748, 0.01640722155570984, -0.16877177357673645, -0.07585609704256058], [-0.3662317991256714, 0.28985604643821716, -0.28141701221466064, 0.09923981875181198, -0.016946982592344284], [-0.12213633954524994, 0.3439353108406067, 0.5202100276947021, -0.23089808225631714, -0.5714647769927979], [-0.5596556663513184, 0.16967950761318207, 0.07606812566518784, -0.49844619631767273, 0.39368873834609985], [0.11790572106838226, -0.6385598182678223, 0.537095308303833, 0.721084475517273, -0.25110796093940735], [0.18960922956466675, 0.11453714221715927, 0.5342439413070679, 0.07214661687612534, -0.11869852244853973], [0.27958983182907104, -0.3469775915145874, 0.08909554779529572, -0.2669576108455658, 0.3050650358200073], [-0.04965905100107193, 0.0364408977329731, -0.06310418993234634, 0.30422043800354004, -0.35114359855651855], [-0.891444742679596, -0.5875421166419983, -0.16879098117351532, 0.31982555985450745, -0.5160863399505615], [0.2932736873626709, -0.17625610530376434, 0.15301106870174408, 0.39430123567581177, 0.2698761820793152], [0.012841164134442806, -0.026318704709410667, -0.10759865492582321, -0.3527754843235016, -0.22370679676532745], [-0.5704330801963806, 0.1164146438241005, -0.001988122472539544, -0.25398117303848267, 0.1665341854095459], [0.43825504183769226, 0.12016785889863968, -0.9888262152671814, -0.0897124856710434, -0.14957593381404877], [-0.31148117780685425, -0.1795405149459839, -0.5642551779747009, 0.28968238830566406, -0.09202432632446289]], "bias": [0.4894067645072937, -0.027512891218066216, -0.035693541169166565, 0.47629833221435547, 0.3311014771461487, -0.2256617546081543, 0.33116859197616577, 0.3547278642654419, 0.4639882445335388, 0.4399093687534332, -0.1566466987133026, 0.47828468680381775, 0.5632131695747375, 0.5740911364555359, -0.08396085351705551, -0.0996122807264328]}, {"weights": [[-0.09467977285385132, -0.08451185375452042, 0.05571453645825386, 0.10439962893724442, -0.1037726029753685, -0.15760967135429382, 0.023639151826500893, -0.4374315142631531, 0.5702367424964905, -0.11119444668292999, 0.5974217057228088, -0.2552473843097687, 0.12099717557430267, 0.007431377656757832, -0.4717133045196533, 0.332472562789917], [0.2739289402961731, 0.04059100151062012, -0.16414833068847656, 0.1202724352478981, 0.4472566545009613, 0.1929599642753601, 0.5278752446174622, 0.03539365902543068, 0.17640931904315948, 0.22205382585525513, 0.2131575047969818, 0.24680694937705994, -0.2199224978685379, 0.5188753604888916, 0.13083267211914062, -0.43610259890556335], [-0.26557621359825134, 0.6384584903717041, 0.3268161118030548, 0.14646507799625397, -0.3673737645149231, 0.2959827482700348, -0.23792563378810883, -0.33262357115745544, -0.6096481680870056, -0.6155775189399719, -0.09869296848773956, 0.6717346906661987, -0.5613551139831543, -0.272133469581604, 0.06817304342985153, 0.0014746803790330887], [0.11739940196275711, 0.13888373970985413, 0.2780882716178894, -0.2127116620540619, 0.20849743485450745, -0.009057397022843361, 0.41895103454589844, -0.30692166090011597, -0.16971421241760254, -0.3120456635951996, 0.11146847903728485, -0.17316754162311554, -0.037311043590307236, 0.0657987967133522, 0.10228429734706879, 0.020031360909342766], [-0.7147589325904846, -0.014710440300405025, -0.56466144323349, -0.004045316018164158, 0.37486857175827026, -0.07355410605669022, -0.008716314099729061, 0.05850738286972046, -0.5941986441612244, 0.023337123915553093, -0.19521117210388184, -0.35680052638053894, 0.8049020767211914, 0.12232107669115067, 0.1680455207824707, -0.14552907645702362], [0.45267239212989807, -0.20252470672130585, 0.02600465714931488, 0.25272324681282043, 0.3937104344367981, 1.2228291034698486, 0.12762653827667236, 0.001119399443268776, 0.03330260142683983, 0.4828839600086212, -0.6041931509971619, 0.44652819633483887, 1.1999576091766357, 0.9118834733963013, 0.8833431005477905, -0.8926200866699219], [0.5113162398338318, -0.3415284752845764, 0.3737788498401642, 0.19306813180446625, 0.049002617597579956, 0.6929907202720642, -0.07782046496868134, 0.03954175114631653, 0.6419582366943359, 0.5231955051422119, -0.5974472165107727, 0.18061557412147522, 0.49738240242004395, 0.9202865958213806, 0.5371413230895996, -0.3396504521369934], [0.22617921233177185, 0.45732012391090393, -0.6899833083152771, 0.5133687853813171, -0.0917784720659256, 0.21943041682243347, 0.2522791922092438, 0.25838497281074524, 0.21097777783870697, 0.5197047591209412, -0.5002470016479492, 0.12824539840221405, 1.102449893951416, 0.3550655245780945, 0.2676352560520172, -0.5625913739204407]], "bias": [-0.08442376554012299, 0.4140225946903229, -0.025516759604215622, -0.04545097425580025, 0.019098076969385147, 0.5047410130500793, 0.4656015634536743, 0.4091516435146332]}, {"weights": [[-0.868168294429779, 0.34534338116645813, -0.49197426438331604, -0.5218421816825867, -0.6320823431015015, 0.3488273024559021, 0.5141221880912781, 0.7309123873710632]], "bias": [0.33977484703063965]}]}